<?xml version="1.0"?>
<opencv_storage>
<myhaar type_id="opencv-haar-classifier">
  <size>
    32 32</size>
  <stages>
    <_>
      <trees>
        <_>
          <_>
            <feature>
              <rects>
                <_>
                  1 26 21 6 -1.</_>
                <_>
                  1 29 21 3 2.</_></rects>
              <tilted>0</tilted></feature>
            <threshold>-0.0513859987258911</threshold>
            <left_val>0.9153823256492615</left_val>
            <right_val>-0.9457362294197083</right_val></_></_>
        <_>
          <_>
            <feature>
              <rects>
                <_>
                  26 3 6 9 -1.</_>
                <_>
                  28 5 2 9 3.</_></rects>
              <tilted>1</tilted></feature>
            <threshold>0.0118247503414750</threshold>
            <left_val>-0.6640645265579224</left_val>
            <right_val>0.6728634834289551</right_val></_></_></trees>
      <stage_threshold>-0.2728726863861084</stage_threshold>
      <parent>-1</parent>
      <next>-1</next></_>
    <_>
      <trees>
        <_>
          <_>
            <feature>
              <rects>
                <_>
                  1 0 30 23 -1.</_>
                <_>
                  11 0 10 23 3.</_></rects>
              <tilted>0</tilted></feature>
            <threshold>0.2390190958976746</threshold>
            <left_val>-0.9453930258750916</left_val>
            <right_val>0.9022338986396790</right_val></_></_>
        <_>
          <_>
            <feature>
              <rects>
                <_>
                  26 3 6 14 -1.</_>
                <_>
                  28 5 2 14 3.</_></rects>
              <tilted>1</tilted></feature>
            <threshold>4.6620899811387062e-003</threshold>
            <left_val>-0.8380079269409180</left_val>
            <right_val>0.1815205067396164</right_val></_></_>
        <_>
          <_>
            <feature>
              <rects>
                <_>
                  6 3 10 6 -1.</_>
                <_>
                  4 5 10 2 3.</_></rects>
              <tilted>1</tilted></feature>
            <threshold>0.0163361094892025</threshold>
            <left_val>-1.</left_val>
            <right_val>0.8539407849311829</right_val></_></_></trees>
      <stage_threshold>0.0900682806968689</stage_threshold>
      <parent>0</parent>
      <next>-1</next></_>
    <_>
      <trees>
        <_>
          <_>
            <feature>
              <rects>
                <_>
                  2 27 27 4 -1.</_>
                <_>
                  2 29 27 2 2.</_></rects>
              <tilted>0</tilted></feature>
            <threshold>-0.0354135707020760</threshold>
            <left_val>0.8838700056076050</left_val>
            <right_val>-0.9447802901268005</right_val></_></_>
        <_>
          <_>
            <feature>
              <rects>
                <_>
                  6 1 20 4 -1.</_>
                <_>
                  11 1 10 4 2.</_></rects>
              <tilted>0</tilted></feature>
            <threshold>0.0279741995036602</threshold>
            <left_val>-0.9545950889587402</left_val>
            <right_val>0.8535621762275696</right_val></_></_></trees>
      <stage_threshold>-0.0912181064486504</stage_threshold>
      <parent>1</parent>
      <next>-1</next></_>
    <_>
      <trees>
        <_>
          <_>
            <feature>
              <rects>
                <_>
                  8 15 4 7 -1.</_>
                <_>
                  8 15 2 7 2.</_></rects>
              <tilted>1</tilted></feature>
            <threshold>-0.0213904194533825</threshold>
            <left_val>0.9126827716827393</left_val>
            <right_val>-0.8458214998245239</right_val></_></_>
        <_>
          <_>
            <feature>
              <rects>
                <_>
                  0 0 32 15 -1.</_>
                <_>
                  8 0 16 15 2.</_></rects>
              <tilted>0</tilted></feature>
            <threshold>0.1376883983612061</threshold>
            <left_val>-0.9212899804115295</left_val>
            <right_val>0.7402734756469727</right_val></_></_></trees>
      <stage_threshold>-0.1055480018258095</stage_threshold>
      <parent>2</parent>
      <next>-1</next></_>
    <_>
      <trees>
        <_>
          <_>
            <feature>
              <rects>
                <_>
                  2 1 9 15 -1.</_>
                <_>
                  2 6 9 5 3.</_></rects>
              <tilted>0</tilted></feature>
            <threshold>0.0372900292277336</threshold>
            <left_val>-1.</left_val>
            <right_val>0.8726168274879456</right_val></_></_>
        <_>
          <_>
            <feature>
              <rects>
                <_>
                  20 9 8 10 -1.</_>
                <_>
                  24 9 4 5 2.</_>
                <_>
                  20 14 4 5 2.</_></rects>
              <tilted>0</tilted></feature>
            <threshold>1.3074259913992137e-004</threshold>
            <left_val>-0.7965787053108215</left_val>
            <right_val>0.6128615736961365</right_val></_></_>
        <_>
          <_>
            <feature>
              <rects>
                <_>
                  7 1 4 5 -1.</_>
                <_>
                  8 1 2 5 2.</_></rects>
              <tilted>0</tilted></feature>
            <threshold>-5.2396248793229461e-004</threshold>
            <left_val>0.8939905166625977</left_val>
            <right_val>-1.0000139474868774</right_val></_></_>
        <_>
          <_>
            <feature>
              <rects>
                <_>
                  17 3 8 6 -1.</_>
                <_>
                  19 3 4 6 2.</_></rects>
              <tilted>0</tilted></feature>
            <threshold>2.3676270211581141e-004</threshold>
            <left_val>-0.9094493985176086</left_val>
            <right_val>0.6479905247688294</right_val></_></_>
        <_>
          <_>
            <feature>
              <rects>
                <_>
                  4 13 4 9 -1.</_>
                <_>
                  5 13 2 9 2.</_></rects>
              <tilted>0</tilted></feature>
            <threshold>-3.0780150555074215e-003</threshold>
            <left_val>0.8804950118064880</left_val>
            <right_val>-1.0000009536743164</right_val></_></_></trees>
      <stage_threshold>0.4565097987651825</stage_threshold>
      <parent>3</parent>
      <next>-1</next></_>
    <_>
      <trees>
        <_>
          <_>
            <feature>
              <rects>
                <_>
                  1 20 29 12 -1.</_>
                <_>
                  1 23 29 6 2.</_></rects>
              <tilted>0</tilted></feature>
            <threshold>0.0950038433074951</threshold>
            <left_val>-0.8449624180793762</left_val>
            <right_val>0.6955050230026245</right_val></_></_>
        <_>
          <_>
            <feature>
              <rects>
                <_>
                  28 6 4 6 -1.</_>
                <_>
                  28 6 2 6 2.</_></rects>
              <tilted>0</tilted></feature>
            <threshold>9.4870990142226219e-004</threshold>
            <left_val>-0.5932353734970093</left_val>
            <right_val>0.2388805001974106</right_val></_></_>
        <_>
          <_>
            <feature>
              <rects>
                <_>
                  0 6 4 6 -1.</_>
                <_>
                  2 6 2 6 2.</_></rects>
              <tilted>0</tilted></feature>
            <threshold>0.0111487796530128</threshold>
            <left_val>-0.7125781178474426</left_val>
            <right_val>0.7035346031188965</right_val></_></_></trees>
      <stage_threshold>-0.6103085279464722</stage_threshold>
      <parent>4</parent>
      <next>-1</next></_>
    <_>
      <trees>
        <_>
          <_>
            <feature>
              <rects>
                <_>
                  7 14 4 4 -1.</_>
                <_>
                  8 14 2 4 2.</_></rects>
              <tilted>0</tilted></feature>
            <threshold>1.7789329867810011e-003</threshold>
            <left_val>-0.8074606060981751</left_val>
            <right_val>0.5739722251892090</right_val></_></_>
        <_>
          <_>
            <feature>
              <rects>
                <_>
                  8 1 16 3 -1.</_>
                <_>
                  12 1 8 3 2.</_></rects>
              <tilted>0</tilted></feature>
            <threshold>0.0217163208872080</threshold>
            <left_val>-0.8196088075637817</left_val>
            <right_val>0.5892298221588135</right_val></_></_></trees>
      <stage_threshold>-0.2456365972757340</stage_threshold>
      <parent>5</parent>
      <next>-1</next></_></stages></myhaar>
</opencv_storage>
